svm_type c_svc
kernel_type linear
nr_class 2
total_sv 5
rho -0.198999
label 2 1
nr_sv 3 2
SV
0.02630161072051746 1:-0.53104938 2:-1.4919737 3:0.93698752 4:0.86601675 5:0.7992313 6:0.73972244 7:0.68755835 8:0.6421895 9:0.60295637 10:0.56917606 11:0.54016959 12:0.51528749 13:0.49393172 14:0.47556894 15:0.45973508 16:0.44603347 17:0.43412916 18:0.42374158 19:0.41463672 20:0.40661988 21:0.3995291 22:0.39322952 23:0.38760866 24:0.38257243 25:0.3780419 26:0.37395063 27:0.37024249 28:0.36686988 29:0.36379229 30:0.43175 31:0.43928198 32:0.44649861 33:0.45408255 34:0.46214031 35:0.47059431 36:0.47932701 37:0.4882283 38:0.49720721 39:0.50619181 40:0.51512608 41:0.52396654 42:0.53267963 43:0.54123958 44:0.54962695 45:0.55782742 46:0.56583089 47:0.57363079 48:0.58122346 49:0.58860762 50:0.59578399 51:0.60275493 52:0.60952408 53:0.61609616 54:0.62247669 55:0.62867181 56:0.63468812 
0.7404982560690017 1:0.80691015 2:1.2034091 3:-0.42045888 4:-0.5501903 5:-0.63386562 6:-0.6899723 7:-0.72893356 8:-0.75677809 9:-0.77716379 10:-0.79240856 11:-0.80403028 12:-0.81304774 13:-0.82015856 14:-0.82584906 15:-0.83046413 16:-0.83425239 17:-0.83739603 18:-0.84003057 19:-0.8422583 20:-0.84415751 21:-0.84578884 22:-0.8471998 23:-0.84842805 24:-0.84950369 25:-0.85045101 26:-0.85128976 27:-0.85203616 28:-0.85270356 29:-0.85330306 30:-0.83935506 31:-0.83739036 32:-0.83555572 33:-0.83367508 34:-0.83167219 35:-0.82952437 36:-0.82723533 37:-0.82482026 38:-0.82229826 39:-0.8196887 40:-0.81700975 41:-0.81427794 42:-0.81150813 43:-0.80871363 44:-0.8059065 45:-0.80309764 46:-0.80029697 47:-0.79751354 48:-0.79475561 49:-0.79203068 50:-0.78934557 51:-0.78670639 52:-0.78411864 53:-0.78158715 54:-0.77911615 55:-0.7767093 56:-0.77436965 
0.2845118975731286 1:-0.53024723 2:-1.6555224 3:1.722063 4:1.8300142 5:1.8825058 6:1.9048208 7:1.9106011 8:1.9074426 9:1.8996961 10:1.8898731 11:1.8794031 12:1.8690713 13:1.8592809 14:1.8502129 15:1.8419227 16:1.8343975 17:1.8275906 18:1.8214404 19:1.8158813 20:1.8108495 21:1.8062859 22:1.8021368 23:1.7983548 24:1.7948979 25:1.7917294 26:1.788817 27:1.7861329 28:1.7836526 29:1.7813548 30:1.8083341 31:1.8108026 32:1.8138901 33:1.8171501 34:1.8204055 35:1.8235891 36:1.8266752 37:1.8296521 38:1.832512 39:1.8352485 40:1.8378565 41:1.840332 42:1.8426728 43:1.8448784 44:1.8469497 45:1.848889 46:1.8506998 47:1.8523863 48:1.8539534 49:1.8554064 50:1.8567506 51:1.8579915 52:1.8591345 53:1.8601848 54:1.8611477 55:1.8620279 56:1.8628301 
-0.6743653001190114 1:-0.53104959 2:0.79010714 3:-0.80346085 4:-0.76324928 5:-0.7351107 6:-0.71599132 7:-0.70296608 8:-0.69393396 9:-0.68751085 10:-0.6828127 11:-0.6792791 12:-0.67655266 13:-0.67440185 14:-0.67267334 15:-0.67126284 16:-0.67009741 17:-0.6691246 18:-0.6683057 19:-0.66761147 20:-0.66701942 21:-0.66651191 22:-0.66607493 23:-0.66569722 24:-0.66536963 25:-0.66508467 26:-0.66483616 27:-0.66461897 28:-0.66442881 29:-0.66426207 30:-0.6782972 31:-0.68014424 32:-0.68172612 33:-0.68331033 34:-0.68500154 35:-0.68682715 36:-0.68878073 37:-0.69084286 38:-0.69299046 39:-0.69520086 40:-0.69745327 41:-0.69972937 42:-0.70201329 43:-0.70429156 44:-0.70655293 45:-0.70878821 46:-0.71099007 47:-0.71315283 48:-0.71527231 49:-0.71734561 50:-0.71937091 51:-0.72134733 52:-0.72327476 53:-0.72515365 54:-0.72698495 55:-0.72876994 56:-0.73051016 
-0.3769464642436358 1:-0.53104959 2:-0.30914402 3:0.3376767 4:0.50333761 5:0.63375501 6:0.73919668 7:0.82553479 8:0.89650306 9:0.95487184 10:1.002904 11:1.0425022 12:1.0752584 13:1.1024846 14:1.1252466 15:1.1444012 16:1.1606321 17:1.1744834 18:1.1863878 19:1.1966903 20:1.2056663 21:1.213537 22:1.2204808 23:1.2266425 24:1.2321398 25:1.2370698 26:1.2415121 27:1.2455329 28:1.2491877 29:1.2525227 30:1.18941 31:1.1822655 32:1.1746147 33:1.1664316 34:1.1578101 35:1.1488624 36:1.1396906 37:1.1303811 38:1.1210056 39:1.1116231 40:1.1022821 41:1.0930216 42:1.0838727 43:1.07486 44:1.0660019 45:1.0573125 46:1.0488014 47:1.0404752 48:1.0323374 49:1.0243896 50:1.0166316 51:1.0090617 52:1.0016773 53:0.99447473 54:0.98744977 55:0.9805977 56:0.9739134 
