svm_type c_svc
kernel_type linear
nr_class 2
total_sv 7
rho 0.104965
label 2 1
nr_sv 4 3
SV
1.162887246043332 1:-0.37756835 2:-0.83017223 3:-1.1124703 4:-0.90481818 5:-0.11194014 6:-1.0358713 
1.285593623265628 1:-0.81564807 2:-0.26697475 3:1.7989438 4:1.657484 5:1.8461129 6:2.5819173 
0.1373325938737902 1:1.918138 2:2.3424605 3:-1.1243511 4:-1.1145785 5:-1.0607288 6:0.70862896 
0.2596832606831997 1:0.60997814 2:-0.79606024 3:-1.0611505 4:-1.0439405 5:-1.6546036 6:-1.0085586 
-1.21708718798786 1:-0.77962946 2:-1.0803464 3:0.068532952 4:1.3343065 5:0.37198384 6:-0.11614079 
-0.9841299476162787 1:0.0029006599 2:1.0324721 3:0.80969029 4:0.2378607 5:0.055791954 6:0.63248011 
-0.6442795882618105 1:-0.28675115 2:0.1139374 3:0.71120666 4:0.11593127 5:1.5859613 6:-0.19125861 
